12 128
1 0.0021890257 -0.00022945016 0.00027396833 -0.0036348188 0.0034125757 -0.0029288284 -0.0037463845 -0.0006074739 0.0008469723 0.0027386602 -0.0014136845 0.00031740376 -0.0034687987 0.0034086173 -0.00044448866 -0.0014818241 0.0012367468 -0.0020975992 0.0015905898 -0.0033738806 0.002796471 0.0006333521 -0.0011422707 0.00075172615 0.00038210754 -0.0022708422 0.0026507569 0.0032475074 0.000748851 0.0012080786 -0.0029710094 -0.0007665739 -0.0023461627 -0.0031226976 -0.0026772628 0.003360545 0.00037433958 0.0011988131 0.0012118067 0.0032833717 0.002125465 0.0030288114 0.002786661 -0.002652314 -0.0020989752 0.0030500041 -0.0018432125 0.002396797 -0.003468229 -0.00033473925 -0.00027960032 0.0023864 0.0017290693 -0.0008245271 0.0017063674 0.002300974 0.0029748823 0.0014410047 -0.003155443 -0.0020349578 -0.000588875 0.0032268937 -0.0001904057 -0.0020260867 -0.0009613447 0.002972711 -0.0020730924 0.0018549948 -0.0006656325 0.0039038514 0.0020131592 -0.0008620405 -0.0032599985 -0.0026098718 -0.0017230286 0.0020276522 0.0019499256 -0.0035249046 0.0029008165 -0.0031589875 0.003330847 -0.0011642318 0.0025257787 0.0022866789 -0.0035334518 -0.0028667715 0.002399981 -0.0022254044 -0.0033221436 0.0012727516 0.0021260807 0.0032732736 0.0038564496 -0.001793726 0.0018374346 0.002358807 -0.0029374347 0.0018720472 0.00055164954 -0.002073588 -0.0033465857 -0.002201434 0.001356418 0.0037048643 0.0017781027 0.0037566882 -0.0019471587 -0.0015585767 0.0025396207 -0.0024063597 -9.399284e-05 0.0033819547 -0.0028128468 0.0031052239 -0.00062346243 -0.0031226412 0.00020188066 0.0023457985 -0.001273607 0.00093172025 0.0016057952 -0.0033679856 -0.0031249162 -0.0024372388 0.0004459666 0.001787274 -0.00091331155 0.0015783827
13 0.001149415 -0.00284072 0.003230523 -0.00038020272 0.0038001281 -0.00094850734 0.003471998 0.002282487 -0.0033979386 -0.0018867261 -0.0018770943 0.0026362329 0.0017998804 -0.0013649923 0.0008927618 0.0017558695 -0.0022909874 -0.0001295178 -0.00095768675 -0.0033080673 -0.0013986484 0.0022528304 0.0011679254 -0.0026509014 -0.0017923322 -0.003785336 0.00373818 -0.0003083188 -0.0030121123 -0.0006185349 0.0032848152 0.0019901379 0.002189104 -8.260866e-05 0.0021688163 -0.00193277 -0.00021463951 -0.0012368036 -0.0032222269 -0.0036972333 -0.002793405 0.0016974873 0.0029702815 0.0012001119 0.0032594502 -0.0023286948 -0.0022424748 -0.0028844404 0.00344205 0.0031149692 -0.0005558841 0.0011795893 -0.003785706 0.0027999566 0.0017954825 0.0016260587 0.0024651105 -0.0025617792 0.0031282466 0.0031387468 -0.0037932175 0.00033057964 0.00035676832 0.0022731563 0.0015283899 -0.0013515139 0.0013025365 0.0031398642 0.003661601 0.0037826647 0.0028033706 0.0011888038 0.0016231127 -0.0009914819 -0.00081905664 0.003649703 -0.00033775554 0.0021207556 -0.003148536 -0.0034970779 -0.0035804298 0.002570939 0.003172002 0.0011341232 -0.0026435659 0.003637696 -0.0031309682 -0.00090604153 -0.00064690644 -0.0029972591 0.0020502426 0.0026102988 -0.0027943216 0.0005791173 0.0033726539 -0.0027229316 -0.0034030285 -0.0015304169 0.001649782 -0.0008619418 -0.0003845984 -0.0037288032 -0.0010274093 -0.0007895585 -0.0012716694 -0.0036203573 -0.0007290073 -0.002640714 -0.002216643 -0.003226326 0.00082916167 0.00045955664 -7.686325e-05 0.001666118 -0.0011613516 -0.003689205 0.0006066582 -0.0017181882 -0.0022924745 0.0020150794 0.0024207423 -0.00013569275 -0.0021774562 0.0017312475 -0.0015766502 -3.179698e-05 -0.0025173018 -0.0027856596
2 0.002842385 0.0027820426 -0.001974181 0.0013538687 -0.0028594895 0.003595966 -0.0028144838 0.0036484543 0.00068551966 -0.00018550328 0.002177911 -0.0020909412 -0.0034506174 -0.002041608 -0.0026679793 0.0030841061 -0.00069185044 -0.00042948444 -0.0021212604 -0.0021250276 -0.003354785 0.0028213568 -0.0033732485 -0.0025575282 0.0008236699 0.0013186974 0.0015757913 0.0034727512 0.002484856 -0.0005047351 -0.0032913655 0.0030694862 -0.0013255078 0.003023333 -0.0016076717 -0.0008530506 -0.0005834387 -0.0017883033 0.0023417885 -0.0023885975 -0.0035057028 -0.001897994 -0.0007733045 -0.0038717452 0.0028585098 -0.0013905843 0.0014831808 -0.0025605864 0.0033065807 -0.0018283696 0.0007883791 -0.0035822843 -0.0019249991 0.00027896994 0.002785747 -0.003874789 0.0033610999 -0.0029063837 0.0001868205 -0.0037946303 6.531741e-06 0.002531513 0.00032112695 6.819336e-05 0.00030124493 -0.003849653 -0.0005840271 0.0033278314 0.0020875647 -0.0031994728 -0.0034025684 -0.002549518 -0.003442193 -0.0038528065 -0.00010479495 0.002303775 0.0027678187 0.0028135497 -0.0010899395 -0.0035997983 0.00339171 0.003354773 -0.0022182995 0.0025163263 -0.0024774056 0.0028686796 0.0007264823 0.0037662084 -0.0002571913 0.003319757 0.0028357687 0.0006236194 0.0034401226 -0.0012117148 -0.0022883352 -0.0038112681 -0.0029158993 0.00011414879 -0.0021893769 -0.0018161192 -0.0014678026 -0.0018493027 -0.0012343741 0.0016984594 0.0014217448 -0.002408752 0.0019957714 0.00065941014 0.0018444697 -0.00086861465 0.0015107881 0.0030282815 -0.0035605144 0.0033586307 0.0025448299 -0.0016191786 -0.0021756333 0.0026770288 -0.0013933596 -0.0010322895 -0.0035567346 -0.003877873 0.002694947 -0.0030743626 0.0038200628 -0.000977656 -0.0024992141 0.0003148262
15 -0.001127153 0.00073661486 0.0035247144 -0.0017613706 -0.002135916 -0.0012983998 0.0009302965 -0.0014216847 0.0021975164 -0.0021496785 -0.0032105297 -0.0013551143 0.0028474312 0.00078375766 -0.0022910053 -0.0021843563 0.0037276542 0.0019774921 0.0029691448 -0.0012738896 0.0015361265 -0.00060071156 0.00141879 0.0024237875 0.0009413671 0.0013789427 0.0028991338 9.664681e-06 0.0016180924 -0.002842684 -0.0035171164 0.0010999328 0.0024992856 0.0013447618 -0.0033619024 0.001813064 0.0011504856 0.0021757502 -0.00097059354 0.0010998071 -0.00049542985 -0.00017685487 -0.0007694685 0.00082259736 0.00021719112 0.00017630837 0.0011639 -0.0014268871 -0.0030322045 -0.0001456648 0.00022298076 0.0027384977 -0.00336346 -0.00078831066 -0.0024853274 0.0019115334 -0.003304719 -0.00084186177 -0.0027941696 -3.697391e-05 -0.001340594 -0.0024256948 0.0001684806 -0.0011086724 0.0022487857 0.0020993808 0.0038744065 0.0015908909 0.003870262 0.0037779692 0.0028837014 -0.002091309 -0.002206878 -0.0027535837 0.00057271775 0.0038552715 -0.0012593681 -0.0023061351 -0.003460081 -0.0010398392 -0.0016779874 0.0022630356 0.0011495816 0.002029302 -0.0031977107 0.0030617116 -0.00059830846 0.0010401089 -0.0031036527 0.0015952418 0.0022910947 0.002448543 0.0036079043 -0.001222686 -0.0017287303 -0.00053829624 -0.0027320657 -0.0009962457 -0.00038396983 -0.003401787 -0.001295752 0.0033592996 -0.0032176594 -0.002329252 -0.0023706579 0.002898872 -0.00362975 0.00037773352 0.0035811802 -0.0036438226 0.00030853506 0.00019000105 0.0025376882 -0.0034380788 -0.0027803811 -0.000503076 -0.0025836313 0.0029618628 -0.001622976 -0.0018976594 0.0004611764 -0.0016342261 -0.00036817914 0.0028109069 0.0019634848 0.0011765802 0.0019885516 0.0037493922
3 0.003682192 -0.0027672853 -0.003252511 0.00034041863 0.0012929154 0.0036031755 -8.701927e-06 0.0016653906 0.0031350248 -0.0012925715 0.00091303076 -0.0011232797 0.0026886752 -0.0037235166 0.0038745278 0.0031223309 -0.0032846967 0.0030446039 -0.001687805 -0.002749188 -0.002876115 0.0016076826 -8.693901e-05 0.0019182506 -0.0013306255 -0.003716911 0.0030440586 0.0019633002 -0.0019621707 -0.0032465155 -0.00033532275 0.0033868502 0.0024546653 -0.0017682549 0.0028227717 0.00016097329 -0.0026528756 0.0023643929 -0.0011338091 0.0022625157 -0.0006901036 0.0019743473 -0.0038525122 0.0027488896 -0.00074539066 0.0021695327 0.002241835 0.0020753553 -0.00034285555 -0.0030147252 0.0026497245 -0.0010754421 -0.0029521298 -0.00045254987 -0.00091689423 6.8999274e-05 0.001836168 0.002334271 0.0023017325 0.00036448982 0.003075838 -0.0022641418 0.0004451557 0.0014524622 0.0027687307 0.0035370323 0.001135465 0.0016991375 -0.0027120763 0.0011611867 -0.0019511798 -0.0007438007 0.0022317471 0.0034609293 0.000678382 -0.003539396 -0.002739414 -0.00070391357 0.001929201 -0.0027689803 0.0015445981 0.0029472196 -0.003075922 -0.001785207 0.0022070627 -0.002181232 0.0028401443 1.7551389e-05 0.0038054502 0.0016692402 -0.0013266422 -0.0025313385 -0.0004646112 0.00040506106 0.00016615231 -0.0022570402 0.0031243165 0.0029435093 0.0030160514 -0.002694606 0.0033180818 -0.0006178789 0.0008019624 0.00022346427 0.0012896575 -0.001194077 -0.0036814343 -0.0007784137 0.0003817157 0.0017046282 0.0031432242 0.0022007427 -0.001611392 0.0036320146 -0.0033095523 0.003720542 -0.00023880994 0.0005912488 0.0025762469 -0.0010698033 0.003295024 -0.0022491345 0.000804067 0.0034523276 0.0012490003 -0.0009965705 -0.00013312449 -0.00029194535
11 0.002234595 0.0021203645 -0.0014543637 0.0014085001 -0.002958138 0.002884392 -0.0026598608 0.003139809 0.00055171584 -0.0035405755 0.0020267318 0.0003709608 -0.001837893 -0.002846726 0.0038245108 -0.0017316492 -0.0034040438 -0.0017218515 -0.0024761334 -0.0015875712 -0.0011406799 0.0030559513 0.002841803 0.0031003756 0.0018437568 0.00322714 0.00069692836 -0.0026147543 0.0015996187 -0.0023636676 -0.00081847474 0.0005619431 -0.0035622527 0.0014415317 0.000100020596 0.0038578175 0.0032380803 0.0013555472 0.0030699668 0.002089071 0.0021019813 -0.0011212988 0.00064249703 -0.003863953 -0.0018570273 -0.0037692036 -0.0025207999 1.07544665e-05 0.0029411481 -0.0015719462 0.0023507096 -0.0029029143 0.0009158535 -0.0037800588 -0.00013982478 -0.002625694 0.001450481 0.0021860101 0.0018861915 0.0013858262 -0.0033309686 -0.0034007465 -0.0029463978 -0.0029702517 -0.0012058531 0.0035557959 -0.00065384444 0.0012634321 0.0031690344 0.0014483223 -0.0014633604 0.0013954729 -0.0010443123 -0.0027537413 -0.0026044168 -0.0019084598 0.0037665383 -0.003325413 -0.000332171 0.0006313351 -0.0034583732 0.00025676974 -0.002462402 0.00018130144 0.002625771 -0.0015675123 0.0026726539 0.00012520718 -0.0010708374 -0.0030370324 -0.002936088 -0.00055507396 -0.003742878 -0.0030321784 0.0012585584 -0.0017270303 0.0032717823 0.0016415381 0.0014356568 0.0032698438 0.0017363854 0.000373787 0.0012029632 0.0022853022 -0.00028780996 0.0039047014 0.0030707193 0.0017159326 0.00087088515 0.0013191327 0.0010583592 -0.0009157704 0.0017579622 -0.0009803252 -0.0036282546 0.0029365483 0.0006821306 0.00019400641 -0.0019209384 9.9746656e-05 -0.0038189888 0.0014381339 -0.00087607757 0.0018336611 -0.0036958656 -0.000529585 0.0026371996 0.00047258192
4 0.00035683915 0.0034011402 -0.001604571 -0.0033307914 0.0016891821 -0.0029976997 0.0032203407 0.0019666597 -0.00027250903 0.0017903743 -0.00034625267 0.0015753303 0.0012641518 0.0015801637 -0.0036839303 0.0010077379 0.0025707735 0.0019232848 -0.0022281318 -0.0014897571 0.00049698306 -0.000290651 -0.0019797075 -0.0018691922 -0.00068319676 0.0038909214 0.0017184097 0.0015524375 -0.0038017388 -0.0010850311 0.0028097199 0.0025770953 -0.00018492727 -0.0022090112 0.0025724857 -0.0007535035 0.0007180994 0.0020881307 -0.0017773005 0.0006508195 -0.00019856598 0.0008624358 -0.0031395673 0.0034628285 -0.0012058496 -0.0025726657 -0.0020493586 0.002544436 0.0016513442 -0.003061042 -0.002009127 -0.0031786943 9.7293305e-05 -0.0019996187 -0.00010219287 -0.00015030544 0.00086562993 0.0014933439 0.0017287694 0.0008837658 -0.0033226972 -0.0018010315 0.0011970608 0.00081212184 -0.0026808921 -0.0030667768 -0.003515565 0.0008925078 0.0034802733 -9.275044e-06 -0.0013994601 0.0017108246 -0.00023709591 -0.0005908823 0.0024063743 0.0013077932 0.0023626906 -0.0031758184 -0.0004428591 0.0008741336 -0.0011523743 -0.0006612445 0.000780608 -0.0005137436 -0.0008078126 0.0022840942 -0.0033725912 0.0001413938 0.0020429827 0.0029532334 -0.002961533 0.0036750128 -0.00348959 -0.0029315127 -0.0035977443 0.0034917 0.0003728364 -0.00073191256 -0.0013069471 -0.001463106 0.0039063594 0.0030411074 0.001915013 0.0026837236 -0.0006477203 -0.0020017491 0.0026088718 0.0039021745 -0.0016464887 0.0019234717 0.0034316906 -0.00021951176 -0.0019972355 -0.0011822145 -0.0027192368 -0.0027569272 0.0037408653 -0.0033724853 -0.0030351807 -0.0014693026 -0.0017786451 0.003296516 -0.0027628269 0.000561037 -0.0038393508 0.002304895 -0.0010551696 -0.0025901645
14 0.0024983962 -0.0018410858 -0.0011040334 -0.0037920973 0.003671494 -0.0023792905 0.0035783763 -0.00229474 -0.00026423213 -0.0028345254 0.0026889376 0.0026340222 -3.9189188e-05 -0.0013196765 0.00090205966 0.0038370718 0.0016973064 -0.0012006452 0.0023851597 0.0012417458 0.0005004508 0.0014217364 0.0028996158 -0.001666773 0.0021299117 0.0012011144 0.00074572494 0.0012647158 -0.0006122365 -0.001988402 0.0021549482 -0.0019999663 0.0026936564 0.002141366 0.002315509 0.0006075398 -0.0003737621 0.0016228884 -0.00036851646 -0.0013218918 -0.00237637 0.0021705213 0.0023269355 0.0022713041 0.00011939132 0.0014155981 -0.0033979348 0.0031977503 -0.00056736317 -0.0017130161 0.0038379426 -0.0013275677 -0.0038977105 0.0005804868 0.0015246723 0.00059036666 0.0032591864 -0.0014777508 -0.0009247127 -0.0020730074 -0.0037663376 -0.0029947157 0.0037844055 0.00316099 -0.0032878525 -0.0012735989 0.00057255133 -0.0014768708 0.00072136516 -0.0016357497 0.0032853712 0.0027689426 -0.0020849558 0.0026653833 0.0022863392 0.0026056732 -0.002800792 -0.003432518 -0.0038182512 0.0024745194 0.003385194 -0.003039635 -0.0017769305 0.0006563823 -0.0024698016 -0.0018252928 0.00057982025 0.003312606 0.0010000946 -0.0036855417 0.00040877226 0.0009228293 -0.0010462381 -0.002035106 0.0034096548 0.00073779916 0.0026213827 0.001719489 0.0038759788 0.0035176445 -0.00181542 0.0008594611 0.0009942396 0.0018803863 0.0023140525 0.0034946052 -0.0023962264 -0.0027271274 0.0012805477 -0.002005576 -0.0008519159 0.0005281923 -0.0024671543 0.0005607052 0.0019889134 0.0028120377 0.0012929493 0.0002159683 0.0013675379 -0.003709699 -0.0021777856 -0.001059392 0.0025970382 -0.0016357637 -0.0004496565 -0.0038247923 -0.001494839 0.0032534138
5 -0.0017032621 -0.0025130443 -0.0028978828 0.0013410961 -0.0028080863 0.003892405 0.0017425655 -0.0015648479 -0.0033289175 0.0032570225 0.0038158621 -0.0013784852 0.0028806778 -0.0007670666 -0.002734649 -0.0023432206 0.0005888005 -0.00076217664 0.0028141614 0.0026911537 -0.00196107 -0.001363231 -0.001693098 -0.0026462802 -0.0030194167 0.0003144145 1.42174895e-05 -0.0020208606 -0.0014435131 0.00048146845 -0.003041291 0.0014765174 0.003090738 -0.0038030304 0.0021507018 -0.0038099368 -0.002997596 0.0011365205 0.0018018762 -0.0022493142 -0.0006576536 -0.0037554565 0.0006411969 -0.0029014582 0.0035781541 0.0007295027 0.0031434223 -0.0005486286 -0.0017055664 0.00051108835 0.0011222871 0.0026045514 0.0030128264 -0.0018517771 -0.0004979068 -0.0015980388 0.0013056705 -0.0032194946 0.0011412025 -0.0013982819 -0.0018290073 0.0027907412 -0.0031864964 0.0026009202 0.0013828615 -0.0012212902 -0.000144919 -0.0009129747 0.003056556 -0.0008781486 0.0009665335 -0.0012170175 0.0033784308 0.002921041 0.003189723 -0.00022348156 -0.001520392 0.0037814684 -6.0743863e-05 0.0005492187 0.002350111 0.0029740594 -0.0024186969 -0.0004005304 0.0020580443 0.0033011443 0.0031507662 -0.0032374626 0.0010943862 -0.0015644036 -0.0009456227 0.0009049051 0.0013059269 0.00046164272 0.00028572962 -5.8570247e-05 0.0004485386 0.0033954408 -0.0030471096 -0.0004798892 0.003848663 -0.0034803555 0.0028025154 0.00012022673 -0.0011932441 -0.002612347 -0.0002214186 0.0028944071 -0.0030177073 0.0037137591 0.0033156187 0.0015104462 0.0015537363 -0.00067671377 0.0008512159 -0.002659924 -0.0031075757 0.00031539463 0.00019682548 -0.00042421638 0.00057151046 -0.0017131731 0.0036385688 -0.0012772644 0.0029489978 -0.0038413557 0.00197146 -3.0823205e-05
6 0.0022556372 -0.0024066097 0.0008516472 -0.00089396734 0.0009519912 0.0009737349 -0.00022867079 -0.0007468348 -0.002923964 0.0031334425 0.002734108 0.00128767 0.0037193533 7.700682e-05 0.0032103644 -0.0009595839 0.001765585 -0.00075876364 -0.0018254125 -0.00075252535 0.00371621 -0.0011308528 0.0016152431 -0.0013112416 0.0021080668 -0.003292692 0.0005807586 -0.0016235971 0.0019272622 0.0005730302 0.0010939004 -0.0012306604 0.000856721 0.0019762665 0.0031533956 0.0005126051 0.0033471917 -0.0025092422 0.0028758093 -0.0037726497 -3.4200384e-05 0.001354823 0.0020549726 0.003131585 -0.0006008939 0.0035910779 0.003656419 -0.00074594177 -0.0012437843 0.0008298197 -0.0005679716 0.002229978 0.0006616516 0.0010996866 0.0026723575 0.0028534934 4.434472e-05 0.0011799708 0.00296315 -0.0018515377 -0.0008190204 -0.0021762506 -0.0029552486 0.0026090157 0.0008582058 -0.0026937616 0.00023822524 0.0019975991 -0.0016036548 0.00034098257 0.0014415081 0.00014619126 -0.0032385066 0.002771576 -0.0013967643 -0.0030749661 -0.0015993137 0.0034792938 0.002968828 -0.0009302609 -0.001465958 0.0012965022 0.0024338951 -0.0016881842 -0.0014589273 0.0024371333 -0.0019328134 -0.00361097 0.003636967 -0.0031096796 -0.0028686733 -0.0038874608 -0.0024710756 0.0012373793 0.00042195845 0.0038474794 -0.0002340095 3.8146307e-05 -0.0032049033 -0.002960673 0.0018319883 0.0008586065 0.0014427798 0.00056632556 -0.00073754176 -0.00037996026 -0.0027636716 -0.0011681733 -0.00011162413 -0.0007254051 -0.002197831 0.0014017588 -0.003608914 0.0035042346 -0.00074465026 0.0037914761 -0.0010315734 0.00079230405 -0.0006909538 0.00015147391 -0.0030242773 0.0029875922 -0.0033477556 0.0037996406 0.0012517023 0.0013218479 0.0010716144 -0.0010659336
7 -0.0035651673 0.003194157 -0.0023792975 -0.0032264362 -0.0017373828 0.0021775144 -0.001068601 0.0037531347 0.0028643364 -0.0011466697 -0.0033452543 -0.00012623296 -0.002476513 -0.003700201 -0.0011557549 0.00038387958 -0.00084552617 0.002886263 -0.0008175973 -0.0011918471 -0.0026496807 -0.0007413112 -0.0028263386 -0.0005238976 0.0017260319 -0.0012677782 -0.0033576463 0.00017913485 0.003419344 -0.001529911 0.001713732 0.002206776 -0.0034505043 0.00045874203 0.0005624223 -0.0003550979 -0.0030713114 -0.0016404552 0.0035336898 0.0025946756 0.001042974 0.0035129832 -0.0035868525 -0.003552771 0.0003610351 -0.0029836425 0.0024075443 0.0014734073 0.0031107054 -0.0031051429 -0.0008119187 0.00071164255 0.00020848389 0.0022195482 -0.00027060419 0.0013874074 4.8398622e-05 -0.00041474236 -0.003397489 -0.0035516527 -0.0029400436 -0.0033087372 0.002679936 -0.00058988814 0.0025995176 -0.00064964243 0.00029868874 -0.0017967989 0.0018906044 -4.9384053e-05 -0.0019451359 -0.0019991866 -0.00020735849 0.00059623056 -0.0020684863 -0.0035884753 -0.0027430966 0.0025792455 0.0033217217 -3.6977144e-06 0.002476419 -0.002590483 -0.0024270306 -0.0030575397 -0.0023699144 0.0021670002 0.0004456448 -0.0002264848 0.00013678924 -0.0027545448 -0.0020364907 -0.0010458557 -0.00318076 0.0017084724 -0.0030494956 0.0021061818 0.00021156094 -0.0033106655 0.0021561016 0.0003019288 -0.0006114969 0.0019037119 -0.00011466878 -0.002209002 -0.0013526258 -0.0005227964 -0.0037940808 -0.0011515949 -0.0038935777 -0.0031540503 -0.001966913 -0.003845106 0.0005302842 0.00037537774 -0.002484423 0.0016130743 0.0003984811 0.0037923409 -0.0003777989 -0.0013489136 -0.002254421 -0.0032446408 -0.0021714254 0.0024719383 -0.0038393198 0.0017697209 0.0014577437 -0.0023976841
9 -0.0016747608 0.0021427716 0.0008636897 0.0033761 -0.0031190724 -0.00059403677 0.002658878 0.0008556352 0.0037627257 0.0028256536 -0.00066747837 0.0024004264 -0.0028588274 0.0030828926 0.0011221984 -0.002606581 0.0031875502 0.0021928293 0.0014975326 0.0029237785 0.0033746513 -0.0006507998 0.0016634713 -0.0008063293 -0.002735687 -0.0031022427 -0.0018191962 -0.0006721776 -0.0026681188 0.002460795 -0.0035893796 -0.0017148982 0.0009187824 -0.0018402282 0.0015629717 0.0024385203 -0.0036454387 6.753852e-05 -0.0034102371 0.0026231047 -0.00090919976 0.0024086393 -0.0013379722 0.0020409448 0.00022114888 0.002070494 0.0021519002 -0.0038499357 -0.0024184762 0.0015784217 -0.0033290118 0.0037914843 0.0038755655 -0.00090771803 -0.0028426265 -0.0033425326 -0.0031505253 -0.0023493296 -0.0033577094 -0.0023884438 0.00030017793 0.0002596244 -0.0005898903 -0.0037513098 -0.0037376182 0.0018915295 -0.003554329 -0.00053813396 0.0009987658 0.00054521876 -0.00024580027 0.0033781084 -0.0009470568 0.00052711915 0.0006600055 -0.0038876215 -0.0030195948 -0.0009530371 -0.00224365 -0.0010019506 0.0026095212 -0.002458036 0.0012388161 -0.0010082278 0.0019097114 -0.0003947645 -0.0038455823 -0.00059839373 -0.002084234 0.0028009643 -0.0009017604 -0.002994475 -0.0014420677 0.0013169672 -0.0024462605 -0.0026937418 -0.003885554 -0.0021778315 0.00029525234 -0.0016035687 0.00208618 -0.0019484882 -0.0011507068 -0.0027856317 0.0025270355 -0.00295954 0.00093031814 -0.0008825848 -0.0015178241 -0.003661915 0.00049721706 0.0024960383 -0.0028433455 0.0002356217 -0.0024765695 0.0020867353 0.0005669562 -0.000540046 -0.0035196033 0.0015984987 -0.002547478 -0.0017102648 0.0022280526 0.0005950762 -0.0011543895 -0.00012691255 0.0038856824 0.0017578407
