12 32
1 -0.16678401185361671 -1.994287817782686e-16 1.7826106145424124e-15 -0.054119255571336 0.8340357867335175 -5.956561701958097e-16 1.0738839000966723e-16 0.523104679786197 -0.39287838397507413 -2.571191991382483e-15 2.9956494515386247e-16 0.5385043971885026 0.5382262692320345 -0.5157248032840258 4.663763908636998e-16 -5.340863782763813e-16 -0.15540975933457177 -7.26777930065714e-16 -1.2196057229650466e-16 0.06358050206262993 0.6998459833093564 -0.6942772688967962 -7.99605840213597e-17 8.784516829066275e-16 -0.2884562526306079 -3.572166589493613e-15 2.966494496575302e-16 0.289216706220889 0.6298022211305432 -0.39386148333643617 -0.5304422507343314 1.2176105810416694e-16
13 -0.20553194055330765 -2.531183037036016e-32 2.816728121754912e-17 0.9741177697505035 -0.049458434631544555 0.0 -1.0277304968839751e-17 0.08003158946624815 -0.5739366358390574 1.6389343064249467e-15 2.1653764669564614e-17 -0.2969432689866451 -0.6299473171652108 -0.4307990374195647 -6.91664017771885e-17 -1.6688372570425782e-16 -0.2511524994186192 8.211356702443542e-15 -5.241779290142006e-19 -0.9573200320194983 -0.11273338901023756 -0.08804522322212374 3.543532135200007e-18 5.853582850835998e-18 -0.7281510820302605 6.000558930393488e-15 1.0825147426787627e-16 -0.470545575292956 -0.4420499390695093 -0.22793041670489425 -0.03197561289105183 5.342876186204982e-17
2 1.0157735673575937e-16 0.21899194520781373 -0.5064105373781572 3.790551816773362e-17 1.0412091921393862e-15 0.24854266448931228 -0.796126522290909 1.9940096703828957e-16 8.561780933247619e-17 0.8749381994844759 0.02171350305139195 3.665041066520898e-15 1.8590488765445766e-16 3.069135780182802e-16 -0.26425760979627855 -0.4051908026261928 2.911747867931143e-17 -0.18139899939660234 -0.8824761611961635 -1.1867855912519857e-15 0.0 9.111063247611949e-17 -0.36462916555905134 0.23532063139917092 -1.9320900214869428e-16 -0.9608728148100409 0.0011905831577693317 -9.277009195509998e-15 1.1438371391006184e-16 8.092087075955141e-17 1.3632945917556833e-16 0.27698739370370834
15 1.181082840862542e-18 -0.8852393790593827 -0.3828125192624328 3.5259477915634965e-18 2.7346625876170173e-16 0.2522034101651506 0.07873535901726159 1.483852343087639e-16 0.0 -0.023805733827048797 0.9592439249782533 -9.149391999138032e-17 0.0 8.172561843444087e-17 0.2358493239328194 -0.1538163704867032 3.998330210745165e-18 -0.96321427423492 0.19799526971233342 -5.729719411031089e-15 0.0 6.159288905032273e-17 0.09852878000616783 0.1526702806447037 2.1522440889744903e-18 0.0012385327123792987 0.9995710134243558 1.476298278204315e-17 0.0 0.0 1.4137126675645875e-16 -0.02926183792119917
3 -0.16454866058686352 -5.328954092350953e-16 1.2395761389802693e-15 0.054905814175125425 0.984761412219572 7.912307372703321e-17 5.383984759900798e-16 0.01241172317408042 -0.7826737114842078 -4.879739109327762e-16 -3.1330090183651056e-16 0.11870115491275417 0.5664305132474935 -0.2291034064262129 -4.146984726767123e-16 2.126227645127921e-16 -0.15326973151634435 1.0286252617435971e-15 -6.218867404298766e-17 -0.1581099729860128 0.9701175879838309 -0.10188960362914568 2.2304870108186606e-16 -5.830910615760396e-16 -0.6592361907225817 3.2600473760722023e-15 -8.97894658281603e-17 -0.251785005752477 0.6423871852355363 -0.20970318369542526 0.21301463497368608 7.085520484116335e-18
11 -0.9913733738490919 1.6333277542898623e-17 -9.312424730496733e-17 -0.11652866155016926 -0.05555427434269601 6.12193219392309e-18 5.607792402942904e-18 -0.022663346236847834 -0.4766137906731185 -3.899913491769067e-15 6.236644347926787e-17 0.7802177785317266 -0.29422528487060284 0.27844388006568027 6.774409314465975e-17 9.90897507005667e-17 -0.9922740421117258 -1.0144570344272336e-15 9.889666714079957e-19 0.11934290882453504 -0.025549411119429582 0.02228728462612934 -6.813442772509429e-18 -1.0356823204472504e-18 -0.7237926239557052 -8.541877644687391e-15 -2.786206279581693e-17 0.6743941363432886 -0.06296654793144565 0.13147401695831518 0.008159845559001951 -2.928806738097545e-17
4 1.0806493198821162e-18 0.3828125192624338 -0.8852393790593827 7.448362935538907e-18 6.075380219629756e-16 -0.07873535901725996 0.2522034101651493 3.6860637118773205e-16 1.2719294238614061e-16 0.9592439249782534 0.02380573382704887 4.0838269073784524e-15 -2.4634069453244925e-17 -2.1319136383790395e-16 0.1538163704867032 0.23584932393281932 3.2892337447276107e-19 -0.19799526971233364 -0.96321427423492 -1.171749822534137e-15 -8.084161862638769e-17 3.2427318898554366e-17 0.15267028064470356 -0.0985287800061677 -1.0930489825276243e-16 -0.9909581225100381 0.0012278607871215343 -9.75125496572043e-15 -2.5048405445726582e-17 -7.751621555155818e-17 -6.617947237656047e-17 -0.1341659114278571
14 0.0 -0.5064105373781584 -0.21899194520781742 0.0 0.0 -0.7961265222909076 -0.2485426644893109 0.0 -2.6632256530320492e-18 -0.021713503051392042 0.8749381994844762 -9.180209867614291e-17 -1.0971653346040621e-17 -7.529049851396013e-17 -0.40519080262619234 0.26425760979627844 3.4459879948992536e-18 -0.8824761611961636 0.18139899939660253 -5.248409771559456e-15 1.301619631483204e-17 -1.1030241443650652e-16 -0.2353206313991707 -0.36462916555905084 9.42922095346119e-20 0.00123666342064906 0.9980623816292429 1.186431909386239e-17 3.725744865147603e-18 1.0736844136457701e-16 -3.300302836578613e-16 0.062208946624639876
5 -0.01593803319618999 1.3893592447567895e-16 -3.944349704685797e-16 0.19927574613765012 0.3853422838663498 6.305391015733754e-18 -1.2811584490106462e-16 -0.9008587460660997 -0.7096552165664629 3.0452588498439333e-15 8.22528838303801e-17 -0.5747685628822821 0.12948584392417925 0.386346979987531 2.347665804362302e-16 2.6930958390607947e-18 -0.018721487341625865 2.844123414613062e-15 1.0931385010688437e-16 -0.32612928093886184 0.5074229589619336 0.797377663810778 -7.316445109209598e-17 3.8679215562501723e-16 -0.47675319433133534 9.031909357136137e-15 -1.207926248707936e-16 -0.7093012367184347 0.19083148267133365 0.4710491285388317 -0.10627422551510156 -1.280882256523084e-16
6 -0.01593803319618999 1.3893592447567895e-16 -3.944349704685797e-16 0.19927574613765012 0.3853422838663498 -1.0814466350256058e-16 -1.2811584490106462e-16 -0.9008587460660997 -0.7096552165664629 3.0452588498439333e-15 8.22528838303801e-17 -0.5747685628822821 0.12948584392417925 0.386346979987531 1.285984584290409e-16 -5.039096516453387e-17 -0.018721487341625865 2.844123414613062e-15 1.0931385010688437e-16 -0.32612928093886184 0.5074229589619336 0.797377663810778 -7.316445109209598e-17 3.8679215562501723e-16 -0.47675319433133534 9.031909357136137e-15 -1.207926248707936e-16 -0.7093012367184347 0.19083148267133365 0.4710491285388317 -0.10627422551510156 9.191784462339544e-18
7 -0.01593803319618999 1.3893592447567895e-16 -3.944349704685797e-16 0.19927574613765012 0.3853422838663498 -1.0814466350256058e-16 -1.2811584490106462e-16 -0.9008587460660997 -0.7096552165664629 3.0452588498439333e-15 8.22528838303801e-17 -0.5747685628822821 0.12948584392417925 0.386346979987531 1.285984584290409e-16 -5.039096516453387e-17 -0.018721487341625865 2.844123414613062e-15 1.0931385010688437e-16 -0.32612928093886184 0.5074229589619336 0.797377663810778 -7.316445109209598e-17 3.8679215562501723e-16 -0.47675319433133534 9.031909357136137e-15 -1.207926248707936e-16 -0.7093012367184347 0.19083148267133365 0.4710491285388317 -0.10627422551510156 9.191784462339544e-18
9 -0.01593803319618999 1.3893592447567895e-16 -3.944349704685797e-16 0.19927574613765012 0.3853422838663498 -1.0814466350256058e-16 -1.2811584490106462e-16 -0.9008587460660997 -0.7096552165664629 3.0452588498439333e-15 8.22528838303801e-17 -0.5747685628822821 0.12948584392417925 0.386346979987531 1.285984584290409e-16 -5.039096516453387e-17 -0.018721487341625865 2.844123414613062e-15 1.0931385010688437e-16 -0.32612928093886184 0.5074229589619336 0.797377663810778 -7.316445109209598e-17 3.8679215562501723e-16 -0.47675319433133534 9.031909357136137e-15 -1.207926248707936e-16 -0.7093012367184347 0.19083148267133365 0.4710491285388317 -0.10627422551510156 9.191784462339544e-18
