12 48
1 -0.16678401185361671 -1.994287817782686e-16 1.7826106145424124e-15 -0.054119255571336 0.8340357867335175 -5.956561701958097e-16 1.0738839000966723e-16 0.523104679786197 -6.9996987984855404e-09 0.0 0.0 0.0 -0.371760479364406 -2.4329858965081613e-15 2.834628021129242e-16 0.509558838063586 0.5092956599742877 -0.48800368742391115 4.4130783902514365e-16 -5.053782954437726e-16 0.32344129038521924 0.0 -0.0 -0.0 -0.15540975933457174 -7.267779300657139e-16 -1.2196057229650464e-16 0.06358050206262991 0.6998459833093563 -0.6942772688967962 -7.996058402135969e-17 8.784516829066274e-16 1.1676090748788524e-08 -0.0 -0.0 -0.0 -0.2884562526306079 -3.572166589493613e-15 2.966494496575302e-16 0.289216706220889 0.6298022211305432 -0.39386148333643617 -0.5304422507343314 1.2176105810416694e-16 -4.0712481399384984e-16 -3.3704077096460497e-26 -1.4104853222628083e-34 1.928408481854597e-43
13 -0.20553194055330765 -2.531183037036016e-32 2.816728121754912e-17 0.9741177697505035 -0.049458434631544555 0.0 -1.0277304968839751e-17 0.08003158946624815 0.0 0.0 0.0 0.0 -0.5739366346255355 1.6389343029596117e-15 2.165376462378026e-17 -0.29694326835879326 -0.6299473158332608 -0.4307990365086905 -6.916640163094423e-17 -1.668837253514017e-16 6.502896301582525e-05 0.0 0.0 0.0 -0.2511524994186192 8.211356702443542e-15 -5.241779290142006e-19 -0.9573200320194983 -0.11273338901023756 -0.08804522322212374 3.543532135200007e-18 5.853582850835998e-18 0.0 0.0 0.0 0.0 -0.7281510820302605 6.000558930393488e-15 1.0825147426787627e-16 -0.470545575292956 -0.4420499390695093 -0.22793041670489425 -0.03197561289105183 5.342876186204982e-17 -3.381225438017647e-17 -2.532594530986498e-26 1.1094104408665747e-82 1.6607095190016026e-109
2 1.0157735673575937e-16 0.21899194520781373 -0.5064105373781572 3.790551816773362e-17 1.0412091921393862e-15 0.24854266448931228 -0.796126522290909 1.9940096703828957e-16 1.2822194601333969e-24 0.0 0.0 0.0 8.561780933247619e-17 0.8749381994844759 0.02171350305139195 3.665041066520898e-15 1.8590488765445766e-16 3.069135780182802e-16 -0.26425760979627855 -0.4051908026261928 -2.108691568780067e-17 -0.0 0.0 -0.0 2.911747867931143e-17 -0.18139899939660234 -0.8824761611961635 -1.1867855912519857e-15 0.0 9.111063247611949e-17 -0.36462916555905134 0.23532063139917092 -1.2256815642983223e-23 0.0 0.0 0.0 -1.9286341858652888e-16 -0.9591541482549786 0.0011884536194758759 -9.260415859545464e-15 1.1417912131413133e-16 8.077613152659844e-17 1.360856132905111e-16 0.27649195979987107 -0.05978380741712072 -1.2374617724144975e-56 -1.9728566044274762e-82 -2.9532277883005105e-109
15 1.181082840862542e-18 -0.8852393790593827 -0.3828125192624328 3.5259477915634965e-18 2.7346625876170173e-16 0.2522034101651506 0.07873535901726159 1.483852343087639e-16 -8.432313035801284e-25 0.0 -0.0 0.0 0.0 -0.023805733827048797 0.9592439249782533 -9.149391999138032e-17 0.0 8.172561843444087e-17 0.2358493239328194 -0.1538163704867032 -2.021425201099445e-16 0.0 0.0 0.0 3.998330210745165e-18 -0.96321427423492 0.19799526971233342 -5.729719411031089e-15 0.0 6.159288905032273e-17 0.09852878000616783 0.1526702806447037 -4.832972370111443e-24 0.0 0.0 0.0 2.132801835318783e-18 0.0012273444520521707 0.9905414087947303 1.4629621674242372e-17 0.0 0.0 1.4009419226384518e-16 -0.028997501697343067 -0.13410949251958118 2.636968733726854e-26 6.658995494652394e-82 3.2346286076641892e-43
3 -0.16454866058686352 -5.328954092350953e-16 1.2395761389802693e-15 0.054905814175125425 0.984761412219572 7.912307372703321e-17 5.383984759900798e-16 0.01241172317408042 6.551556224248075e-09 0.0 -0.0 0.0 -0.7626163969152232 -4.754687685095355e-16 -3.052720455574809e-16 0.11565924055067339 0.5519147900042379 -0.22323225089346546 -4.0407113513399465e-16 2.071739528179761e-16 -0.22493687551599614 0.0 0.0 0.0 -0.15326973151634435 1.0286252617435971e-15 -6.218867404298766e-17 -0.1581099729860128 0.9701175879838309 -0.10188960362914568 2.2304870108186606e-16 -5.830910615760396e-16 -7.66630094739215e-09 0.0 0.0 0.0 -0.6592361907225817 3.2600473760722023e-15 -8.97894658281603e-17 -0.251785005752477 0.6423871852355363 -0.20970318369542526 0.21301463497368608 7.085520484116335e-18 1.7736936440750832e-16 1.677406947517833e-26 -2.950852068868258e-35 3.3068543500023587e-43
11 -0.9913733738490919 1.6333277542898623e-17 -9.312424730496733e-17 -0.11652866155016926 -0.05555427434269601 6.12193219392309e-18 5.607792402942904e-18 -0.022663346236847834 4.992592309925623e-25 0.0 -0.0 0.0 -0.4766128952555964 -3.899906164975459e-15 6.236632631101262e-17 0.7802163127313582 -0.2942247321075887 0.27844335695129707 6.774396587337804e-17 9.90895645399881e-17 -0.001938403949503668 -0.0 -0.0 -0.0 -0.9922740421117258 -1.0144570344272336e-15 9.889666714079957e-19 0.11934290882453504 -0.025549411119429582 0.02228728462612934 -6.813442772509429e-18 -1.0356823204472504e-18 0.0 -0.0 -0.0 -0.0 -0.7237926239557052 -8.541877644687391e-15 -2.786206279581693e-17 0.6743941363432886 -0.06296654793144565 0.13147401695831518 0.008159845559001951 -2.928806738097545e-17 5.247379350582586e-18 5.939682519980815e-28 4.149720310348977e-35 -1.7033477768852745e-43
4 1.0806493198821162e-18 0.3828125192624338 -0.8852393790593827 7.448362935538907e-18 6.075380219629756e-16 -0.07873535901725996 0.2522034101651493 3.6860637118773205e-16 -1.3477229230347474e-24 0.0 0.0 0.0 1.2719294238614061e-16 0.9592439249782534 0.02380573382704887 4.0838269073784524e-15 -2.4634069453244925e-17 -2.1319136383790395e-16 0.1538163704867032 0.23584932393281932 7.061393387990841e-18 0.0 0.0 0.0 3.2892337447276107e-19 -0.19799526971233364 -0.96321427423492 -1.171749822534137e-15 -8.084161862638769e-17 3.2427318898554366e-17 0.15267028064470356 -0.0985287800061677 4.862686206018691e-24 0.0 0.0 0.0 -1.0925893379753713e-16 -0.9905414087947303 0.0012273444520526152 -9.747154407287763e-15 -2.503787219123406e-17 -7.748361874504804e-17 -6.615164285159396e-17 -0.1341094925195816 0.028997501697343022 -9.256305008629966e-41 5.040785683486121e-35 4.444072558710295e-43
14 0.0 -0.5064105373781584 -0.21899194520781742 0.0 0.0 -0.7961265222909076 -0.2485426644893109 0.0 3.169386744969554e-24 -0.0 -0.0 -0.0 -2.6632256530320492e-18 -0.021713503051392042 0.8749381994844762 -9.180209867614291e-17 -1.0971653346040621e-17 -7.529049851396013e-17 -0.40519080262619234 0.26425760979627844 3.3586184295129743e-16 -0.0 -0.0 -0.0 3.4459879948992536e-18 -0.8824761611961636 0.18139899939660253 -5.248409771559456e-15 1.301619631483204e-17 -1.1030241443650652e-16 -0.2353206313991707 -0.36462916555905084 9.382274817357333e-24 -0.0 -0.0 -0.0 9.061634381571884e-20 0.0011884536194766283 0.9591541482549788 1.1401803218474739e-17 3.5805012878178055e-18 1.0318281484409385e-16 -3.1716445930310193e-16 0.05978380741712112 0.2764919597998704 -3.8788291985522466e-32 -5.68384531831597e-38 9.134778406158466e-44
5 -0.01593803319618999 1.3893592447567895e-16 -3.944349704685797e-16 0.19927574613765012 0.3853422838663498 6.305391015733754e-18 -1.2811584490106462e-16 -0.9008587460660997 -3.0919949657718516e-09 -0.0 -0.0 -0.0 -0.7064720244498929 3.031599196906216e-15 8.188393462059225e-17 -0.5721904112453908 0.1289050290327153 0.38461400229322584 2.337135238100922e-16 2.681015830002955e-18 0.09460959083814698 -0.0 -0.0 -0.0 -0.018721487341625865 2.844123414613062e-15 1.0931385010688437e-16 -0.32612928093886184 0.5074229589619336 0.797377663810778 -7.316445109209598e-17 3.8679215562501723e-16 5.632259319385315e-09 -0.0 -0.0 -0.0 -0.47675319433133534 9.031909357136137e-15 -1.207926248707936e-16 -0.7093012367184347 0.19083148267133365 0.4710491285388317 -0.10627422551510156 -1.280882256523084e-16 -7.883643197600889e-17 4.191673706639638e-09 -4.7016866856048e-33 -3.881775575843366e-43
6 -0.01593803319618999 1.3893592447567895e-16 -3.944349704685797e-16 0.19927574613765012 0.3853422838663498 -1.0814466350256058e-16 -1.2811584490106462e-16 -0.9008587460660997 -3.0919949657718516e-09 -0.0 -0.0 0.0 -0.7064720244498929 3.031599196906216e-15 8.188393462059225e-17 -0.5721904112453908 0.1289050290327153 0.38461400229322584 1.2802162394728374e-16 -5.0164934101401286e-17 0.09460959083814698 -0.0 -0.0 0.0 -0.018721487341625865 2.844123414613062e-15 1.0931385010688437e-16 -0.32612928093886184 0.5074229589619336 0.797377663810778 -7.316445109209598e-17 3.8679215562501723e-16 5.632259319385315e-09 -0.0 -0.0 0.0 -0.47675319433133534 9.031909357136137e-15 -1.207926248707936e-16 -0.7093012367184347 0.19083148267133365 0.4710491285388317 -0.10627422551510156 9.191784462339544e-18 -7.883643197600889e-17 -1.397224568879879e-09 1.831649148130206e-17 -5.5867566746131835e-42
7 -0.01593803319618999 1.3893592447567895e-16 -3.944349704685797e-16 0.19927574613765012 0.3853422838663498 -1.0814466350256058e-16 -1.2811584490106462e-16 -0.9008587460660997 -3.0919949657718516e-09 -0.0 0.0 -0.0 -0.7064720244498929 3.031599196906216e-15 8.188393462059225e-17 -0.5721904112453908 0.1289050290327153 0.38461400229322584 1.2802162394728374e-16 -5.0164934101401286e-17 0.09460959083814698 -0.0 0.0 -0.0 -0.018721487341625865 2.844123414613062e-15 1.0931385010688437e-16 -0.32612928093886184 0.5074229589619336 0.797377663810778 -7.316445109209598e-17 3.8679215562501723e-16 5.632259319385315e-09 -0.0 0.0 -0.0 -0.47675319433133534 9.031909357136137e-15 -1.207926248707936e-16 -0.7093012367184347 0.19083148267133365 0.4710491285388317 -0.10627422551510156 9.191784462339544e-18 -7.883643197600889e-17 -1.3972245688798795e-09 -9.15824574065103e-18 -4.1981821877877033e-26
9 -0.01593803319618999 1.3893592447567895e-16 -3.944349704685797e-16 0.19927574613765012 0.3853422838663498 -1.0814466350256058e-16 -1.2811584490106462e-16 -0.9008587460660997 -3.0919949657718516e-09 0.0 -0.0 -0.0 -0.7064720244498929 3.031599196906216e-15 8.188393462059225e-17 -0.5721904112453908 0.1289050290327153 0.38461400229322584 1.2802162394728374e-16 -5.0164934101401286e-17 0.09460959083814698 0.0 -0.0 -0.0 -0.018721487341625865 2.844123414613062e-15 1.0931385010688437e-16 -0.32612928093886184 0.5074229589619336 0.797377663810778 -7.316445109209598e-17 3.8679215562501723e-16 5.632259319385315e-09 0.0 -0.0 -0.0 -0.47675319433133534 9.031909357136137e-15 -1.207926248707936e-16 -0.7093012367184347 0.19083148267133365 0.4710491285388317 -0.10627422551510156 9.191784462339544e-18 -7.883643197600889e-17 -1.3972245688798795e-09 -9.158245740651026e-18 4.198182187787704e-26
