12 128
1 0.032082245 -0.18845408 0.30798137 -0.05143207 0.094615236 -0.04758879 0.28637883 0.13275675 0.0739048 0.3032122 0.28606233 -0.02431436 -0.025287982 -0.05341476 -0.01043653 0.18994181 -0.1666471 -0.031051122 -0.0015084506 -0.08340649 0.050442137 -0.025493009 -0.18109083 0.24656874 0.09523192 -0.039339628 0.27329135 0.09485869 0.046950094 0.20179537 -0.15688628 0.15260059 0.19396953 0.07831881 0.083333984 0.30633312 0.21052563 0.04291814 0.10439939 0.18078779 -0.08146944 -0.24518636 -0.30698687 -0.09275219 0.09656024 0.06268129 0.01148827 -0.13564147 -0.0535744 0.001707108 -0.07544458 -0.086517476 -0.019496128 0.10753319 0.20935354 0.106060535 0.08067014 -0.18306196 0.13907883 0.03298876 0.13098 -0.13861902 -0.106226295 0.23777814 0.10047291 -0.019971248 -0.3440525 -0.27554327 -0.31058267 0.22462231 -0.28808445 0.052791454 -0.17476375 0.008507046 -0.08333574 -0.23537752 -0.14602342 0.105972916 0.056094658 0.07771952 0.036825042 0.041685324 -0.22283694 0.114663206 -0.09922977 -0.23255992 0.10639048 0.14875911 0.2426033 -0.26559454 -0.112088755 -0.085727856 0.019143187 -0.089886084 0.020089528 -0.31175816 0.009988198 0.22138901 0.01246841 -0.2498474 0.16470298 -0.1380324 -0.30412924 -0.17295538 -0.10518011 0.011914828 -0.31131184 0.0033313008 0.020549767 -0.3352894 -0.21473593 0.020466203 0.19565924 0.0037418338 0.20538744 -0.054296073 -0.15694349 0.20055959 -0.052541558 0.21960674 0.027205918 0.10100148 -0.0065868325 0.3062431 -0.06477145 -0.21334277 -0.14338347 -0.122787096
13 0.22783099 -0.064229466 0.18134727 -0.22134525 -0.30212966 -0.013570765 -0.02294668 0.061078098 0.3103949 -0.08425584 0.23240231 -0.22464773 -0.11502498 0.06709821 0.16120447 0.28543738 -0.16670664 0.032491475 0.11586146 -0.16350976 0.28096876 -0.09765303 0.15877537 -0.21548729 0.061971556 -0.29535046 -0.0542489 0.1729071 -0.3076764 0.019712672 0.33725363 -0.03101687 0.10420587 0.2626112 -0.08754541 0.121458344 -0.29647124 0.09480207 0.06545171 -0.13086648 0.109146275 0.11459515 0.3065695 0.171783 0.19177666 -0.099305846 -0.16758096 -0.015002104 -0.25509354 0.17902045 0.2155455 0.3030004 -0.2227809 -0.299409 -0.004673652 -0.026481224 0.13490796 -0.24008541 0.15611315 0.037057593 0.06381257 0.086805016 -0.050941404 0.061922472 -0.11085597 0.13700368 -0.12963174 0.0435208 -0.09317685 0.123854406 -0.3275225 -0.0066324593 -0.04896637 -0.03639014 -0.077840425 -0.1191763 0.15761521 0.23788916 -0.13910918 0.11221968 -0.06158006 -0.2795685 -0.18842064 -0.19862103 0.032904647 -0.23410165 -0.055637546 0.11269101 -0.07768243 -0.119978726 -0.074441366 0.2922903 0.3571821 -0.23221861 -0.085239954 -0.013951076 0.084000856 -0.019288639 0.0144925155 -0.30618352 0.15561347 -0.04295281 0.31606326 0.17478219 0.022423351 -0.14329505 0.20000803 0.16952647 -0.02802265 -0.0126139065 0.120804995 0.12226146 -0.20104489 0.19793557 -0.259226 0.18345112 0.009660701 -0.17063512 -0.24427675 -0.19370455 -0.23732957 0.21573374 -0.24262717 -0.053661488 -0.118018895 -0.110142425 -0.2596827 -0.065703295
2 -0.060472086 0.21874644 -0.029657224 -0.13496013 -0.06210036 -0.04222749 0.010161006 -0.18672504 0.090130284 0.31753778 -0.26286727 0.083092704 -0.20477892 -0.05944653 0.3106835 -0.026676282 -0.07551399 -0.12859483 0.24897896 0.37179717 -0.13107581 0.08169375 0.001927831 -0.0008229148 -0.25055057 0.09276036 -0.26590088 0.003910935 -0.22490644 -0.34394255 -0.11297922 -0.053127535 -0.061038442 -0.35931066 0.11660631 0.09965099 0.099128425 -0.19854681 -0.3070012 -0.14128998 0.24300402 0.09366508 0.29753622 -0.085391685 -0.0988833 -0.04621668 -0.027134515 0.15251896 0.045535877 0.09673113 0.011637676 -4.421122e-05 -0.16211978 -0.16905707 0.14616628 -0.26287314 0.1097016 -0.12299591 0.043416984 0.08908889 -0.19470808 -0.1390844 0.075665936 0.20371431 -0.09354316 0.016923891 0.19535409 -0.22586656 0.044221368 0.04273229 -0.014295248 -0.05205095 -0.090652175 0.08903301 0.15762033 -0.091706045 0.13217472 -0.05635591 -0.19703962 0.19171637 0.23527887 -0.2887234 0.04911712 -0.025277484 0.09352133 0.005129792 0.20731282 -0.137705 -0.36306095 0.26312453 -0.30703858 -0.2211793 -0.062506355 0.33574605 -0.34098154 0.16108364 0.17748599 0.24919987 0.119222514 0.010271634 0.066086166 0.15335968 -0.13615318 0.03928663 0.18078133 0.16963224 -0.03213778 -0.02318732 -0.029822646 0.17491418 0.25600746 -0.045439776 -0.36844587 0.014549598 -0.2792274 0.06364522 0.27050883 -0.10219808 0.0983783 0.2172654 -0.2058754 0.18999092 0.019941546 0.12038057 0.25271025 -0.15310182 -0.037226595 -0.048007827
15 0.18238121 0.02516918 -0.089261346 0.10269003 -0.06461461 0.14516653 0.107424274 -0.07295899 -0.12171913 -0.21557578 0.1504627 0.029247433 0.15131748 0.02279333 -0.337614 0.2713331 0.009454846 0.098668896 0.077840574 -0.050847534 -0.032092076 0.12030556 0.117779076 -0.23757266 -0.17672965 -0.0715818 0.10335398 0.065424696 0.053114396 -0.20130363 -0.23046578 -0.061789613 0.07505003 -0.0014387753 -0.3559378 -0.05441575 0.18287976 -0.26807886 0.02435695 0.087648496 0.089478664 -0.048164293 0.08751148 0.13783337 -0.19077906 -0.0647257 -0.04409845 0.02008531 0.07419844 0.08554718 0.16008812 0.19227742 -0.13978192 0.14321348 -0.18408503 -0.03189291 0.047505975 -0.3228752 -0.06906479 -0.036309693 -0.12575981 0.055361703 -0.12869191 -0.008864249 0.16162543 -0.0707384 0.21023615 -0.35810485 -0.122641996 -0.069379 0.07366935 -0.068463296 -0.13776603 0.14586775 0.14688946 -0.035037313 0.22697173 -0.023306472 -0.28222898 -0.017906863 0.10907647 -0.09320639 0.13620284 -0.02938846 -0.103249274 0.20965034 0.017443517 -0.29486978 -0.05530152 -0.13352552 -0.032521587 -0.07934637 0.31127506 -0.0054511265 0.027808515 -0.14296266 0.061320543 -0.2618555 0.16602096 -0.18826286 -0.016117329 -0.22832483 0.08533282 0.030549875 0.082554564 -0.10315437 0.12781061 0.18672723 -0.26306245 -0.1853792 -0.1363473 -0.09024743 -0.11704341 -0.07614917 -0.30949584 0.18839823 -0.09223363 -0.027771644 0.019552626 0.1527577 0.20192447 0.13271293 0.22267309 0.34386268 0.16482139 0.088115156 0.18155345 0.007960207
3 0.29991743 -0.124878824 0.010498233 -0.21128516 -0.051755052 0.022501236 0.26581824 0.047150247 -0.0032432503 -0.026749035 -0.01775903 -0.06513236 -0.016717752 -0.17199892 0.19412409 0.0011600689 0.22276303 -0.13008206 0.025466656 -0.04926221 -0.2904151 0.16767628 -0.04743353 -0.14985375 0.2624342 -0.064272866 -0.01133133 -0.0046678116 -0.23756416 0.072308 0.081755504 -0.03034053 -0.09547256 0.0643425 -0.032690607 0.030288558 0.09550442 -0.065795526 -0.06056693 0.15760973 -0.11614629 -0.11179477 -0.016732987 0.013470636 -0.20083314 -0.06617798 0.048618697 -0.19088316 0.06445805 0.09888978 0.07296076 -0.25730032 0.06839336 0.079303466 -0.0800752 -0.24685232 0.13256757 -0.07512908 -0.1941225 -0.24716793 -0.08945977 -0.020255225 -0.00034900394 -0.06633014 0.06692994 -0.15186787 -0.004904257 0.002920715 -0.08772395 0.034902252 0.0793279 -0.26656342 0.12147457 0.0904961 0.0091910185 -0.29629216 -0.2251146 -0.029359758 0.25751302 0.012079306 0.026103752 -0.113374524 -0.26855797 -0.27730086 0.14252791 -0.033450693 0.07201441 -0.027039202 0.11058646 0.013848628 -0.21407166 0.07657953 0.0045843706 0.084217 -0.2786358 -0.15302673 -0.053755194 -0.095396355 -0.059868485 -0.042177822 -0.3226436 0.11004793 -0.0068745823 0.16200127 -0.35666472 0.04220189 -0.105422385 0.028710894 0.1418792 0.10941307 0.02482336 0.32024387 0.13070512 0.3250216 0.042416006 0.02849121 0.34760773 0.09864134 -0.05573124 -0.101039805 0.1890863 0.07636987 0.117601834 0.16690683 -0.17496645 -0.005352212 0.20452516 -0.21046731
11 0.044775277 -0.26815972 -0.24115795 -0.031004509 0.05536084 0.34053725 -0.21886542 -0.20174025 -0.07247423 -0.15021598 -0.22507025 -0.07882748 -0.087604254 0.30492 0.35811394 -0.016818179 0.1332748 -0.065230876 0.06573267 -0.15619951 0.27254874 0.2740026 0.20262872 0.025996739 0.108369514 0.0307905 0.13292381 0.084825866 0.15157452 -0.14601341 -0.29900765 -0.07194294 -0.21349365 -0.056390423 -0.041216724 -0.012330342 -0.05651728 -0.33166194 0.27166942 0.13930185 0.07902573 -0.13852552 0.110077076 0.1557037 -0.15813142 0.1261245 -0.08388202 0.030938823 -0.095444165 -0.356696 0.3198215 -0.2717828 -0.14367822 -0.22879258 -0.19332086 -0.14679582 0.052233666 0.34705105 -0.06932324 -0.006885115 -0.26817396 0.1753761 -0.117933646 0.37359023 -0.23044893 -0.111003175 0.018288003 0.07376628 -0.16934778 0.2241267 -0.15401874 0.028570062 -0.21643737 0.11420375 -0.2581176 -0.33216727 0.13989703 0.04520724 0.10473673 0.29422146 -0.06435574 -0.18133298 0.28821293 -0.102623835 0.1208706 0.04638849 -0.0069234176 0.041675605 -0.0684773 -0.14024942 -0.20409766 -0.12852578 0.009439339 0.09573116 0.11516818 -0.036456734 -0.04240815 -0.3277613 0.03076493 -0.03788939 -0.27050254 -0.2782984 -0.012678913 -0.03733533 -0.22705738 0.14118055 -0.20485924 -0.17972405 -0.104639575 -0.023450922 -0.04743726 0.16639863 0.30465636 0.18713486 0.15001924 0.117728986 -0.08978612 0.06297999 -0.14767928 -0.06486704 0.11611787 0.26602978 0.04860191 -0.18044823 0.08519223 -0.010849023 -0.16294882 -0.26658604
4 -0.0145881055 -0.1962038 -0.1094927 -0.1699576 0.23870851 0.0032297086 -0.34769696 0.30123928 0.31877896 0.26952818 -0.34600765 -0.14925145 -0.19810614 0.20157105 0.29421657 0.04881425 -0.14312072 -0.19345652 -0.1412023 -0.07899248 0.12524694 0.02920247 0.0729367 -0.008165452 0.2418654 0.29832682 -0.039407082 -0.13130322 -0.09308218 -0.20353128 0.28271276 -0.023968805 -0.030053629 -0.09880315 -0.018891277 0.24031532 -0.013938062 0.005113897 -0.22100502 -0.00773045 -0.2803491 0.12946586 -0.029628789 0.06704148 -0.03040442 0.21577317 -0.068003885 -0.1196721 0.053216316 0.3327622 0.13830997 0.01074154 -0.16700381 0.011955124 0.003689271 0.2965082 0.031147547 -0.034003213 -0.12985232 0.1781186 -0.028649472 0.16424729 0.12185526 0.09160858 0.085162945 -0.021218592 0.053675175 0.01198924 -0.24958196 -0.010375395 0.30296677 -0.31167743 0.0705605 0.034145884 0.13165286 0.084056616 -0.027640032 0.121439405 -0.12689367 -0.14102004 0.015350618 0.20168568 -0.14577164 0.09104088 0.10513407 0.16228385 0.024944255 -0.16939777 -0.28104708 0.15557559 0.18504073 -0.056316018 0.07470214 -0.06433215 -0.14786772 0.27575657 -0.21287687 0.08896133 0.1818987 -0.05293003 -0.13802819 -0.11609852 -0.28541023 0.103184655 -0.0738852 -0.27671957 -0.042184163 -0.23439106 -0.059445888 0.19629163 -0.28135812 -0.1281398 -0.054067284 -0.03796558 -0.31331083 -0.12836514 0.09893161 -0.012110983 -0.20229314 -0.108325414 -0.104375064 0.08682456 0.011503757 -0.12758262 -0.008149626 0.025544198 0.023875698 -0.07975358
14 0.10554101 -0.2910598 0.023993364 -0.08155267 -0.03699678 0.18566453 -0.0049124444 0.12856498 0.13849887 0.13394117 -0.026866542 0.14004871 0.32399565 0.06737906 -0.02463081 -0.091821775 0.0680345 0.08600056 -0.22163588 -0.1219777 -0.06451602 -0.21979351 0.18016276 -0.22021787 -0.22708198 -0.051983714 -0.023986245 0.06654276 -0.041662816 0.33617336 -0.08887004 -0.21671541 0.071469866 0.008941349 0.019459762 0.07558965 0.06946221 -0.054779995 0.040204074 -0.06966315 0.19543926 0.07955353 -0.0067800353 0.15165071 0.3282492 -0.06442378 -0.20851964 0.0020912613 -0.2649985 0.17285575 -0.14532997 -0.32884124 0.09400011 0.052342206 -0.04363518 0.25773874 0.13719887 0.1302461 0.14725232 -0.20398675 0.23945853 -0.18540785 0.21953942 -0.051738076 -0.092627 -0.023882557 -0.06373917 0.040463664 0.16024451 0.27996376 0.15490249 -0.007868677 0.2676775 0.12559609 0.064171016 -0.19542836 0.13765083 0.14308137 0.071891926 0.0065419325 -0.0024661084 -0.037981875 -0.23407969 -0.09283618 0.10718174 0.21376616 0.118147366 -0.22920066 0.1536674 -0.29368228 0.06873969 0.032336917 0.09180077 0.2333226 -0.12619182 0.049302552 -0.031364158 -0.032477092 -0.22491118 -0.25963986 -0.06774142 0.14462191 0.124477 0.18004139 0.1812197 0.09571932 0.087775685 0.07912816 0.039293386 -0.25383115 -0.057658117 0.0968754 -0.18081962 0.19009982 0.21931283 -0.25036722 -0.09119062 0.06861065 0.24908414 -0.2197279 0.05879188 0.113123104 0.15973945 -0.06462738 0.025807207 0.011434368 -0.18991941 -0.11776315
5 -0.022187123 -0.05368366 -0.032356475 0.3727505 -0.064797975 -0.25053927 -0.08853302 -0.040330373 -0.042958234 -0.09851583 0.082635745 0.034179814 0.08075011 -0.11190075 0.16173626 0.06466648 -0.07871488 -0.14921328 -0.03360236 -0.14159863 0.30788255 -0.0114198215 0.2819412 -0.26769838 0.30145764 -0.11414495 -0.03619332 0.028391493 0.15711516 -0.09706131 -0.30883658 0.30923873 -0.09865215 0.11161994 -0.15558998 0.20127983 -0.07098537 0.2103273 -0.24457109 -0.07173551 0.028030973 0.32573283 -0.052588765 0.25504965 0.2920229 -0.11933661 -0.08716495 0.19397178 -0.27988774 -0.020910842 0.10530339 0.083264045 0.30079827 -0.12281512 -0.19511645 0.17709413 -0.13562573 -0.040855717 0.12918319 0.07636066 -0.010302531 0.010814194 0.079228185 0.1260699 -0.11936876 -0.009419285 -0.103412956 -0.26742086 0.159366 0.06814952 0.031086558 -0.036150135 0.17630395 -0.3273826 -0.10014147 0.038219783 0.032776475 0.27064067 0.14185853 -0.03465638 -0.05327331 0.31468713 0.097058155 0.116536796 -0.027407998 0.018347323 -0.11897396 -0.11921216 0.013231238 -0.33653376 -0.039192945 -0.14236072 0.05594292 -0.18140247 0.09569477 -0.038461737 0.04006959 0.19146396 0.08772885 0.1060313 0.05817966 0.040481396 -0.08773755 -0.23130879 0.16078782 -0.2998199 0.01790364 -0.072273284 0.29338217 0.18543074 -0.24990274 0.14192964 0.049392983 -0.3546209 0.20107216 -0.1832529 -0.014666209 -0.079214394 -0.25984913 0.14047083 -0.12960918 -0.03639674 0.09802268 0.12557857 -0.19718881 0.03493495 -0.20360123 -0.03289546
6 0.18261681 -0.13570082 -0.21853603 -0.24693263 0.12666817 -0.09453712 -0.044411767 -0.24124984 0.069699615 -0.025790486 0.13715222 -0.0513212 -0.08994653 0.03700505 0.07452489 -0.17609105 0.037008323 -0.28502634 0.12251238 -0.18400164 0.05437351 -0.29736915 0.11980847 -0.014221639 -0.15097956 -0.22641347 -0.08308594 -0.19132233 0.0045491722 0.19050096 0.09000444 0.2715074 0.032154284 0.2707763 -0.030753398 0.08039867 -0.23420285 0.10625959 -0.034533743 0.010832085 0.14865246 -0.05107301 -0.08465847 -0.03071235 -0.12782098 -0.10514692 0.3606334 -0.21206981 0.044377264 0.12687507 -0.18459567 0.11010512 -0.29918146 -0.16664952 -0.18102996 -0.19720463 -0.17934787 0.22567673 0.059593026 -0.15749009 -0.0023821322 -0.30747077 -0.15992387 0.019410275 -0.11568931 -0.1607628 0.276995 0.21453325 0.32575083 -0.29895648 -0.19120587 0.020878354 0.1271513 0.20822728 -0.101910196 -0.35714838 0.011343948 0.10942411 -0.034308944 -0.06994638 0.092970595 -0.14318015 0.21779728 0.16005804 0.12991638 0.13426161 0.21053311 0.0054267053 -0.159172 -0.0981029 0.030282972 -0.2951568 -0.05587088 0.2919554 0.34688717 0.053179793 0.2924238 0.012448914 0.060705382 0.05590805 0.048311584 -0.0065766624 -0.21112527 -0.18822572 0.20257981 0.03836838 -0.24815474 -0.36090028 -0.22809272 0.07160748 0.1319621 0.17162396 -0.14188674 0.15514566 0.04410571 -0.05022519 -0.17291515 0.29606643 -0.13824272 0.059243023 0.09484768 -0.0351625 0.054861173 0.0835315 0.09292077 0.16847987 -0.009021461 0.31713894
7 -0.16016099 0.14843816 -0.3023298 0.16079058 -0.10270306 -0.027316913 0.037685387 -0.11722696 0.079930514 0.1124597 -0.07012691 -0.09684025 -0.014781224 0.32963523 0.1936978 -0.04593958 0.09239426 -0.22151789 0.038663913 -0.009573964 0.052750435 0.31573147 0.28913903 0.060272373 -0.027369224 -0.030140135 0.15441012 0.04231453 0.12339631 -0.11080622 0.058482744 0.28791222 0.10369047 -0.16063619 -0.18323329 -0.3285186 0.26442984 0.02293797 -0.037001107 0.31966785 -0.26872474 0.009619908 -0.1169756 0.14568837 0.022949496 -0.22467324 -0.21813147 0.023245703 0.0040476294 -0.050416015 -0.14474022 0.058978204 -0.027128946 0.24605735 -0.025185995 -0.25346148 0.14295171 0.15134756 0.06567678 0.037625726 0.13278188 -0.066546515 0.14804931 0.15283039 0.18668985 0.26394975 0.24844247 -0.051019013 0.13885088 -0.17951292 -0.18201545 0.22462972 0.059634548 -0.07069829 -0.01712004 -0.0047775195 0.37055737 -0.020409564 0.27272156 -0.2610837 -0.08158825 -0.14070764 0.14529535 0.15114242 0.23324007 -0.11111808 0.10251431 0.11601885 0.19130202 -0.16096081 -0.00495011 -0.29837096 -0.17479004 -0.032442607 0.015538761 0.005979236 -0.007375912 -0.15355861 -0.07691045 -0.024496233 -0.16673785 0.0023940427 -0.12648593 -0.3361186 0.21846002 0.15846503 -0.10023695 0.12241516 0.08490552 0.02683474 0.20534638 0.16785386 0.06553866 0.21774758 0.10456035 0.1920525 -0.014512699 0.06278225 -0.18245612 -0.18128873 -0.02595664 0.015931986 0.05105569 0.08249488 0.3024751 0.032918558 0.18694538 0.19914289
9 0.076219566 -0.08193275 -0.14570382 0.30667725 -0.012483013 -0.08280615 -0.046484668 -0.26906002 -0.09729469 0.1157483 0.03453586 -0.10102906 -0.110538915 -0.038143974 0.17004496 0.013866328 0.06814925 -0.11873625 -0.073339716 -0.030519532 0.06003043 -0.08990914 -0.064861305 0.002459333 0.059983872 -0.34516287 -0.13183755 -0.05062079 0.05143754 -0.017180646 -0.048901323 0.1234485 -0.001573558 0.0073590796 -0.09898376 -0.119517855 -0.20214786 -0.0453158 -0.21386695 -0.11470364 0.0066741165 0.09923237 0.043435764 -0.028209604 -0.056147337 -0.18696338 -0.23628835 -0.031742174 -0.120785035 -0.024561318 0.17692201 -0.07861001 -0.17887382 -0.11758206 -0.07469573 0.0056448462 -0.14187701 -0.044499464 0.12082308 0.22150487 -0.11110638 0.010642006 0.037701014 -0.08174222 0.060411155 0.13562343 -0.26731798 0.11507572 0.16785674 0.08685182 -0.13897862 -0.29214153 0.011288122 0.31960008 0.11991881 0.0943413 -0.21371105 0.088647075 0.14948483 0.26002362 -0.14694107 0.27951765 -0.12731689 0.056022465 -0.14957343 0.06867587 0.06254461 -0.19158316 -0.1935942 -0.061966304 -0.040179458 0.12041065 -0.2976582 -0.13698511 0.048191242 -0.004397847 0.17565873 0.11488888 0.114242 0.13440315 -0.04939823 0.08440552 0.18042433 -0.2706127 -0.081371225 0.04165764 0.2694578 0.21077989 0.083936036 -0.07907979 -0.10242007 0.012989969 0.079374604 0.15640798 0.10383659 0.21479218 0.2408733 0.05127006 -0.21683586 -0.1864851 0.023016311 0.14871176 -0.012295191 -0.008395865 -0.31059393 0.20031391 -0.14913923 -0.25182578
