12 12
1 0.05493542229841213 -9.278698227987496e-16 -1.3264344539558632e-16 0.0008676553253393777 0.6111133976091317 0.7896339416550906 -1.16793820681574e-16 -6.217359343162664e-17 1.414288863210058e-09 -1.926942798336926e-10 -5.917349679092706e-17 -1.3420604364784595e-18
13 0.2635001597297981 3.1939633303547886e-17 1.5152745540465167e-15 0.9525927812864875 -0.13014369068880172 0.07872279617202606 5.4750915197524975e-17 -3.2407648860407004e-19 1.6884886099371013e-40 6.904180515745384e-42 -4.003824873721587e-48 -7.853745678202307e-50
2 3.1850957074186225e-16 0.6650211139234148 -0.0890853727735039 -1.5654528850320566e-16 2.358776295178097e-16 2.1873512042201073e-16 0.7398797277771171 -0.04887435747225305 1.5497475756905828e-25 4.641917930370082e-26 -3.109856773143953e-33 1.5156082073161408e-34
15 -3.866850020647896e-16 0.11975544329548288 0.893972779361161 -9.956800941388256e-16 2.8321365436804097e-16 9.214297800209803e-17 -0.028462986379408323 -0.4308841630516824 1.5567365981682742e-25 -2.3694434357977245e-26 2.7992643282309832e-33 -5.057918377991509e-34
3 0.055656906282126724 -3.7359199988405653e-16 -8.687987163199588e-17 0.06209967044309404 0.8505882033704175 0.5191778577723118 -8.137143948392817e-17 1.6509226636404976e-16 -3.1780611294166267e-09 4.330050363335375e-10 1.3296929286147783e-16 3.015755986948347e-18
11 0.9835805339064007 2.0870885817825488e-17 -1.2784035506444585e-16 -0.17696557247315606 -0.0038113714637918474 -0.03518512366346026 -6.022347865241257e-17 8.089881310296935e-18 -9.300976589054158e-41 9.263512899794356e-42 1.36700995769001e-48 -6.647286052181516e-50
4 2.2991229092756e-16 0.8939727793611624 -0.1197554432954826 3.235468228320596e-16 3.159335837858013e-16 9.495312733597315e-17 -0.4308841630516798 0.02846298637940849 1.7982533429865287e-25 6.955115163090242e-26 -4.929941023931287e-33 3.2266709570453894e-34
14 -3.1047420393556876e-16 0.08908537277350416 0.6650211139234176 -8.498912486794368e-16 8.443163457797893e-17 1.7579565093515155e-16 0.04887435747225316 0.7398797277771144 -2.051861129736313e-25 6.290281152803239e-26 -6.357265223038733e-33 9.630289764541645e-34
5 0.00915477635060548 -3.2749163056484884e-16 9.036418026976664e-17 0.16984565030054832 0.7434064916701657 -0.6468503948260449 1.006999306012409e-16 5.3619659593773663e-17 1.6303395382936556e-09 5.267941982597454e-09 -2.7553895416236655e-17 -3.5498969651395098e-19
6 0.00915477635060548 1.2071954119655724e-16 6.051810656342232e-17 0.16984565030054835 0.7434064916701655 -0.646850394826045 9.579229289358231e-17 6.157196682656314e-17 -8.536051129756366e-09 -1.4788274577873868e-09 -4.592342183306438e-17 -1.92863920018776e-17
7 0.009154776350605479 -4.341882737275482e-16 8.653460253240137e-17 0.16984565030054832 0.7434064916701656 -0.6468503948260449 9.335174296908796e-17 2.1480436242371803e-16 9.37914263687095e-09 -2.166327465246274e-09 4.5130621194989665e-17 -1.2468818724664343e-17
9 0.009154776350605482 -1.6823084989447792e-16 7.85794847692971e-17 0.16984565030054835 0.7434064916701657 -0.6468503948260449 9.042609298865208e-17 2.30564781044965e-17 -9.416762521295873e-10 -1.8314858582679721e-09 -3.574154624354199e-17 3.065667309923916e-17
