12 128
1 -0.003110133 0.06563963 0.007500182 -0.00660453 0.03890437 0.0035306283 -0.0029718932 0.007111801 0.0892162 -0.01881954 -0.00014906228 -0.009431839 0.037171543 -0.005511726 -0.0018492051 -0.008899638 -0.00027481394 0.038890235 0.018303301 -0.00059396215 0.041285794 -0.0061605163 -0.0019276467 -0.007339651 0.077150695 0.009829188 0.023995116 0.04354474 0.103637986 -0.008909924 0.030322278 -0.01261074 0.055085603 0.054298144 -0.0045026536 -0.0006646231 0.010631539 -0.0015610658 0.017379433 0.026669879 0.054691996 -0.008705259 -0.00699819 0.00042663282 0.027739681 0.012861819 -0.0019634087 0.008608216 -0.00024453178 -0.01916699 0.009080994 -0.01930429 -0.005450239 0.046484854 0.027918033 -0.0114005655 -0.010011597 -0.007409083 -0.0027032008 -0.0055023315 -0.0064783073 -0.018741116 -0.014489445 0.0012653964 0.07139098 0.011501808 0.0540727 0.11429259 0.034294296 -5.825013e-05 0.017190041 -0.0145395165 0.0032610472 0.02779616 0.03996791 -0.0058361855 0.040095784 -0.002885401 -0.025508715 0.039201636 -0.006923842 0.04583369 -0.009840576 -0.009794555 -0.014019822 0.049350314 0.054455914 -0.0067620324 0.04297427 0.04660448 0.030104386 0.0022094948 0.07313797 -0.0031274532 0.038887743 0.030923415 0.08715446 -0.019054493 0.082135625 -0.0029334025 0.020702014 -0.005700027 -0.003267904 0.13181825 -0.0031395883 -0.0026498465 0.05355422 0.01655462 -0.0016722664 -0.007060659 0.03896045 0.014973933 -0.010011038 0.019937275 -0.00557406 -0.00033302922 0.04832574 0.011975883 0.043746784 -0.0016069774 0.054217257 -0.020847222 -0.00549975 0.029166883 -0.008263505 0.057249174 0.0019273795 -0.0072718672
13 5.579414e-05 0.04415291 -0.0016018968 -0.020726062 0.03411705 0.052683376 0.024199434 -0.00023670243 0.048217535 0.0039887764 0.019636244 0.029837877 0.019376436 -0.020371987 -0.0036046647 -0.0063016596 0.009548789 0.055334408 -0.0008652531 0.0067810793 -0.008836853 0.012094994 0.014061712 0.009940548 0.07387598 -0.0037052196 0.0826493 0.028845137 0.00980358 0.0069598947 -0.0018264927 -0.012530531 0.031313956 0.030972546 -0.013140931 0.0500282 0.04515719 -0.009436748 -0.002770226 0.06045528 0.087280214 -0.0143762 -0.0014264503 -0.0072979927 -0.015089822 0.1469189 -0.0015136165 0.027223708 0.021772373 -0.011629422 0.056785516 -0.014232026 0.072252125 0.012493482 0.0023699384 -0.011681986 0.0076391753 -0.0014819655 -0.00241382 -0.0004187636 -0.008198938 0.0061603896 -0.006723714 0.04883156 -0.0022540444 0.024946194 -0.0104384525 0.038402893 0.014306117 0.020111388 -0.018921422 -0.0056041093 0.024501566 0.042350225 0.06275859 -0.0071614906 0.037673548 -0.021918265 -0.023441186 0.05707468 -0.00674524 0.052098665 -0.0014902255 0.0022968682 0.006325351 -0.00035570227 -0.0037391644 0.03848465 0.076461844 -0.009119025 -0.004724697 0.0392839 0.0446609 -0.002920859 0.06903781 -0.012323998 0.041354597 -0.0049259798 0.029689074 -0.011193374 -0.00024292246 0.09046161 0.009181963 0.07325811 0.0044839047 0.011231069 -0.011314846 -0.004581178 -0.004425037 -0.0022770788 -0.011133905 0.01226776 -0.006930969 0.055632614 -0.008455734 -0.0010159694 0.012624789 -0.01096071 -0.010707097 -0.0015409671 -0.009134575 0.0460756 0.010098595 -0.00042776167 -0.00050983805 0.020628065 0.026414864 0.0038882308
2 -0.0065391078 -0.00041416808 0.02613623 0.023416065 -0.005454307 0.09285978 0.031572886 -0.002382307 0.00096502155 0.09257378 0.040092114 0.02361623 -0.01545313 0.013785612 0.05409595 0.029582975 0.07646873 0.05039906 -0.0054755844 -0.010308589 0.016550878 0.0070706094 -0.014243851 -0.008791568 0.066136286 0.060952567 0.100519426 -0.016321478 0.07891022 0.084353656 -0.0013296746 0.03896732 -0.004488528 0.058708463 0.028063033 -0.011939739 0.036880672 -0.0011462972 0.054583468 0.054501735 0.015244479 -0.011443543 0.07193619 -0.014320545 0.021561038 0.041612696 -0.011750213 -0.0074664964 -0.009316464 -0.0074277907 -0.015942534 0.018776204 -0.0006124433 -0.013972658 0.067371905 -0.013150631 -0.011959408 -0.0028839156 -0.0051158005 0.026843764 0.00078685535 0.01920861 -0.003987981 0.049432248 -0.0020063506 -0.008701337 0.027653024 -0.011600315 0.052043106 0.0568945 -0.008482444 -0.023433095 0.018693943 0.048953865 0.059909295 0.00035112537 0.021374054 -0.0067604664 -0.026228918 -0.002262052 -0.012973766 0.031802565 -0.00068586547 0.01692475 -0.017217314 -0.0021996808 0.004818624 0.021160712 -0.0021279864 -0.006417285 0.013503928 0.03665342 0.02101767 0.04198671 -0.00808907 -0.0057881647 0.074284114 0.040271413 -0.013679422 -0.009979404 -0.003002568 0.041868098 0.0021514338 -0.0013671829 0.004255686 0.00070906244 0.030156467 0.032734126 -0.009273565 0.03480772 -0.005360126 0.03708234 0.048309185 0.05144548 -0.012484288 0.0020654462 -0.013232793 -0.010827714 0.009593514 -0.0005003495 0.041522957 -0.009053448 -0.0058752783 0.009727075 -0.0044136024 0.074098684 -0.002895912 0.035213374
15 0.0 0.0 0.0 0.0 0.0 0.0 0.0 0.0 0.0 0.0 0.0 0.0 0.0 0.0 0.0 0.0 0.0 0.0 0.0 0.0 0.0 0.0 0.0 0.0 0.0 0.0 0.0 0.0 0.0 0.0 0.0 0.0 0.0 0.0 0.0 0.0 0.0 0.0 0.0 0.0 0.0 0.0 0.0 0.0 0.0 0.0 0.0 0.0 0.0 0.0 0.0 0.0 0.0 0.0 0.0 0.0 0.0 0.0 0.0 0.0 0.0 0.0 0.0 0.0 0.0 0.0 0.0 0.0 0.0 0.0 0.0 0.0 0.0 0.0 0.0 0.0 0.0 0.0 0.0 0.0 0.0 0.0 0.0 0.0 0.0 0.0 0.0 0.0 0.0 0.0 0.0 0.0 0.0 0.0 0.0 0.0 0.0 0.0 0.0 0.0 0.0 0.0 0.0 0.0 0.0 0.0 0.0 0.0 0.0 0.0 0.0 0.0 0.0 0.0 0.0 0.0 0.0 0.0 0.0 0.0 0.0 0.0 0.0 0.0 0.0 0.0 0.0 0.0
3 -0.0019199712 0.070996165 -0.0017594033 -0.020834723 0.054831646 0.032892294 -0.005717423 0.004234422 0.110641524 -0.019237388 0.014161002 0.0022511058 0.030708855 -0.020612111 0.015006224 -0.017830811 0.017620876 0.08044408 0.035274304 0.03474944 0.028008807 -0.0016544536 -0.004212876 0.0034726933 0.14321506 0.0074879965 0.09787232 0.06878044 0.08262567 -0.011839708 0.07826219 -0.018805748 0.0865736 0.0726123 -0.016909547 0.021190662 0.023427257 -0.0066038743 -0.0006788399 0.08421506 0.123656884 -0.013120109 -0.012495796 0.013921864 -0.013361543 0.14929947 0.0012049098 0.033011753 0.0399137 -0.02505951 0.064800605 -0.02560848 -0.0041745044 0.043805167 0.0325146 -0.017058065 0.023958258 -0.0055399924 -0.004407629 -0.0019139722 -0.015663808 -0.016995383 -0.016175121 0.056021012 0.053103175 0.049111217 0.0015917369 0.163864 0.027439127 -0.0023062367 -0.0077691786 -0.016110465 0.028429605 0.040813617 0.048024744 -0.00917017 0.032501772 -0.016164111 -0.044321347 0.07503961 -0.017558342 0.10643272 -0.011366824 -0.0070300545 -0.013536746 0.05949562 0.06311716 0.01463528 0.13284454 0.017296353 -0.0032975771 0.002724113 0.10162592 -0.0027625503 0.11352453 -0.00037255214 0.11494319 -0.025474945 0.10753952 -0.012892214 0.046860874 0.045725152 0.024472795 0.2024636 0.014490288 -0.0037608284 -0.0002759792 -0.0022311695 -0.011887048 -0.012693941 -0.006862782 0.028976293 -0.021166112 0.06368223 -0.009138524 -0.0063443976 0.074423194 -0.004711732 0.018709552 -0.004973578 -0.0013383003 -0.013842459 0.009007726 0.043308392 -0.0034240824 0.08160189 0.04811859 -0.013339761
11 0.0 0.0 0.0 0.0 0.0 0.0 0.0 0.0 0.0 0.0 0.0 0.0 0.0 0.0 0.0 0.0 0.0 0.0 0.0 0.0 0.0 0.0 0.0 0.0 0.0 0.0 0.0 0.0 0.0 0.0 0.0 0.0 0.0 0.0 0.0 0.0 0.0 0.0 0.0 0.0 0.0 0.0 0.0 0.0 0.0 0.0 0.0 0.0 0.0 0.0 0.0 0.0 0.0 0.0 0.0 0.0 0.0 0.0 0.0 0.0 0.0 0.0 0.0 0.0 0.0 0.0 0.0 0.0 0.0 0.0 0.0 0.0 0.0 0.0 0.0 0.0 0.0 0.0 0.0 0.0 0.0 0.0 0.0 0.0 0.0 0.0 0.0 0.0 0.0 0.0 0.0 0.0 0.0 0.0 0.0 0.0 0.0 0.0 0.0 0.0 0.0 0.0 0.0 0.0 0.0 0.0 0.0 0.0 0.0 0.0 0.0 0.0 0.0 0.0 0.0 0.0 0.0 0.0 0.0 0.0 0.0 0.0 0.0 0.0 0.0 0.0 0.0 0.0
4 -0.0056023127 0.022441912 0.06850483 -0.0036114224 -0.003936477 0.23837763 0.08996907 0.0016232282 0.073003 0.11226499 0.0031427294 -0.00083897414 -0.015143205 0.027840769 0.087376416 0.03877446 0.039367147 0.03904693 -0.012342683 -0.023324225 0.026734143 0.020360006 -0.0031067876 -0.0066225342 0.09779387 0.07936775 0.107811004 -0.011275902 0.050394658 0.062971584 -0.002362661 -0.007369354 -0.015635358 0.042652912 -0.0042628003 -0.006294664 0.053633217 -0.009535244 0.11855595 0.09039045 -0.009733771 -0.012187877 0.12107364 -0.00021029972 0.050910763 0.063927054 -0.015390319 -0.005821723 -0.008590596 -0.0046542864 -0.020636806 0.03748786 -0.0018370023 -0.012568264 0.053854562 -0.012966769 -0.019211983 -0.010750252 0.025544552 0.02113076 -0.0128151495 0.0152992215 -0.004421025 0.09466724 0.013425437 -0.010522234 0.052320544 -0.014482938 0.0841694 0.055925578 -0.016942292 -0.016510578 0.060111735 0.08608708 0.045564108 -0.0027034637 -0.0018696089 -0.0032174021 -0.027684906 -0.0019077018 -0.0051548732 0.009931449 0.036188364 0.037752856 -0.021714887 -0.014358033 0.005321985 0.03063514 -0.006017543 -0.0014600492 0.069689766 0.06676801 -0.004065316 0.0402364 -0.023499375 -0.007644821 0.050577715 0.057656903 -0.020898048 -0.016168976 0.024597995 0.0986672 -0.008702633 -0.006089934 0.03895969 -0.009032288 -0.0067142486 0.07812178 -0.008202623 0.012561841 -0.015482669 0.022385461 -0.0018084291 0.027760573 -0.007027143 -0.005253418 -0.015937496 -0.014972143 0.0018601001 -0.0010379025 -0.004336778 -0.013543779 -0.003497508 -0.010421434 -0.0015660468 0.061920516 0.00033610687 0.095227376
14 0.0 0.0 0.0 0.0 0.0 0.0 0.0 0.0 0.0 0.0 0.0 0.0 0.0 0.0 0.0 0.0 0.0 0.0 0.0 0.0 0.0 0.0 0.0 0.0 0.0 0.0 0.0 0.0 0.0 0.0 0.0 0.0 0.0 0.0 0.0 0.0 0.0 0.0 0.0 0.0 0.0 0.0 0.0 0.0 0.0 0.0 0.0 0.0 0.0 0.0 0.0 0.0 0.0 0.0 0.0 0.0 0.0 0.0 0.0 0.0 0.0 0.0 0.0 0.0 0.0 0.0 0.0 0.0 0.0 0.0 0.0 0.0 0.0 0.0 0.0 0.0 0.0 0.0 0.0 0.0 0.0 0.0 0.0 0.0 0.0 0.0 0.0 0.0 0.0 0.0 0.0 0.0 0.0 0.0 0.0 0.0 0.0 0.0 0.0 0.0 0.0 0.0 0.0 0.0 0.0 0.0 0.0 0.0 0.0 0.0 0.0 0.0 0.0 0.0 0.0 0.0 0.0 0.0 0.0 0.0 0.0 0.0 0.0 0.0 0.0 0.0 0.0 0.0
5 5.579414e-05 0.04415291 -0.0016018968 -0.020726062 0.03411705 0.052683376 0.024199434 -0.00023670243 0.048217535 0.0039887764 0.019636244 0.029837877 0.019376436 -0.020371987 -0.0036046647 -0.0063016596 0.009548789 0.055334408 -0.0008652531 0.0067810793 -0.008836853 0.012094994 0.014061712 0.009940548 0.07387598 -0.0037052196 0.0826493 0.028845137 0.00980358 0.0069598947 -0.0018264927 -0.012530531 0.031313956 0.030972546 -0.013140931 0.0500282 0.04515719 -0.009436748 -0.002770226 0.06045528 0.087280214 -0.0143762 -0.0014264503 -0.0072979927 -0.015089822 0.1469189 -0.0015136165 0.027223708 0.021772373 -0.011629422 0.056785516 -0.014232026 0.072252125 0.012493482 0.0023699384 -0.011681986 0.0076391753 -0.0014819655 -0.00241382 -0.0004187636 -0.008198938 0.0061603896 -0.006723714 0.04883156 -0.0022540444 0.024946194 -0.0104384525 0.038402893 0.014306117 0.020111388 -0.018921422 -0.0056041093 0.024501566 0.042350225 0.06275859 -0.0071614906 0.037673548 -0.021918265 -0.023441186 0.05707468 -0.00674524 0.052098665 -0.0014902255 0.0022968682 0.006325351 -0.00035570227 -0.0037391644 0.03848465 0.076461844 -0.009119025 -0.004724697 0.0392839 0.0446609 -0.002920859 0.06903781 -0.012323998 0.041354597 -0.0049259798 0.029689074 -0.011193374 -0.00024292246 0.09046161 0.009181963 0.07325811 0.0044839047 0.011231069 -0.011314846 -0.004581178 -0.004425037 -0.0022770788 -0.011133905 0.01226776 -0.006930969 0.055632614 -0.008455734 -0.0010159694 0.012624789 -0.01096071 -0.010707097 -0.0015409671 -0.009134575 0.0460756 0.010098595 -0.00042776167 -0.00050983805 0.020628065 0.026414864 0.0038882308
6 5.579414e-05 0.04415291 -0.0016018968 -0.020726062 0.03411705 0.052683376 0.024199434 -0.00023670243 0.048217535 0.0039887764 0.019636244 0.029837877 0.019376436 -0.020371987 -0.0036046647 -0.0063016596 0.009548789 0.055334408 -0.0008652531 0.0067810793 -0.008836853 0.012094994 0.014061712 0.009940548 0.07387598 -0.0037052196 0.0826493 0.028845137 0.00980358 0.0069598947 -0.0018264927 -0.012530531 0.031313956 0.030972546 -0.013140931 0.0500282 0.04515719 -0.009436748 -0.002770226 0.06045528 0.087280214 -0.0143762 -0.0014264503 -0.0072979927 -0.015089822 0.1469189 -0.0015136165 0.027223708 0.021772373 -0.011629422 0.056785516 -0.014232026 0.072252125 0.012493482 0.0023699384 -0.011681986 0.0076391753 -0.0014819655 -0.00241382 -0.0004187636 -0.008198938 0.0061603896 -0.006723714 0.04883156 -0.0022540444 0.024946194 -0.0104384525 0.038402893 0.014306117 0.020111388 -0.018921422 -0.0056041093 0.024501566 0.042350225 0.06275859 -0.0071614906 0.037673548 -0.021918265 -0.023441186 0.05707468 -0.00674524 0.052098665 -0.0014902255 0.0022968682 0.006325351 -0.00035570227 -0.0037391644 0.03848465 0.076461844 -0.009119025 -0.004724697 0.0392839 0.0446609 -0.002920859 0.06903781 -0.012323998 0.041354597 -0.0049259798 0.029689074 -0.011193374 -0.00024292246 0.09046161 0.009181963 0.07325811 0.0044839047 0.011231069 -0.011314846 -0.004581178 -0.004425037 -0.0022770788 -0.011133905 0.01226776 -0.006930969 0.055632614 -0.008455734 -0.0010159694 0.012624789 -0.01096071 -0.010707097 -0.0015409671 -0.009134575 0.0460756 0.010098595 -0.00042776167 -0.00050983805 0.020628065 0.026414864 0.0038882308
7 5.579414e-05 0.04415291 -0.0016018968 -0.020726062 0.03411705 0.052683376 0.024199434 -0.00023670243 0.048217535 0.0039887764 0.019636244 0.029837877 0.019376436 -0.020371987 -0.0036046647 -0.0063016596 0.009548789 0.055334408 -0.0008652531 0.0067810793 -0.008836853 0.012094994 0.014061712 0.009940548 0.07387598 -0.0037052196 0.0826493 0.028845137 0.00980358 0.0069598947 -0.0018264927 -0.012530531 0.031313956 0.030972546 -0.013140931 0.0500282 0.04515719 -0.009436748 -0.002770226 0.06045528 0.087280214 -0.0143762 -0.0014264503 -0.0072979927 -0.015089822 0.1469189 -0.0015136165 0.027223708 0.021772373 -0.011629422 0.056785516 -0.014232026 0.072252125 0.012493482 0.0023699384 -0.011681986 0.0076391753 -0.0014819655 -0.00241382 -0.0004187636 -0.008198938 0.0061603896 -0.006723714 0.04883156 -0.0022540444 0.024946194 -0.0104384525 0.038402893 0.014306117 0.020111388 -0.018921422 -0.0056041093 0.024501566 0.042350225 0.06275859 -0.0071614906 0.037673548 -0.021918265 -0.023441186 0.05707468 -0.00674524 0.052098665 -0.0014902255 0.0022968682 0.006325351 -0.00035570227 -0.0037391644 0.03848465 0.076461844 -0.009119025 -0.004724697 0.0392839 0.0446609 -0.002920859 0.06903781 -0.012323998 0.041354597 -0.0049259798 0.029689074 -0.011193374 -0.00024292246 0.09046161 0.009181963 0.07325811 0.0044839047 0.011231069 -0.011314846 -0.004581178 -0.004425037 -0.0022770788 -0.011133905 0.01226776 -0.006930969 0.055632614 -0.008455734 -0.0010159694 0.012624789 -0.01096071 -0.010707097 -0.0015409671 -0.009134575 0.0460756 0.010098595 -0.00042776167 -0.00050983805 0.020628065 0.026414864 0.0038882308
9 5.579414e-05 0.04415291 -0.0016018968 -0.020726062 0.03411705 0.052683376 0.024199434 -0.00023670243 0.048217535 0.0039887764 0.019636244 0.029837877 0.019376436 -0.020371987 -0.0036046647 -0.0063016596 0.009548789 0.055334408 -0.0008652531 0.0067810793 -0.008836853 0.012094994 0.014061712 0.009940548 0.07387598 -0.0037052196 0.0826493 0.028845137 0.00980358 0.0069598947 -0.0018264927 -0.012530531 0.031313956 0.030972546 -0.013140931 0.0500282 0.04515719 -0.009436748 -0.002770226 0.06045528 0.087280214 -0.0143762 -0.0014264503 -0.0072979927 -0.015089822 0.1469189 -0.0015136165 0.027223708 0.021772373 -0.011629422 0.056785516 -0.014232026 0.072252125 0.012493482 0.0023699384 -0.011681986 0.0076391753 -0.0014819655 -0.00241382 -0.0004187636 -0.008198938 0.0061603896 -0.006723714 0.04883156 -0.0022540444 0.024946194 -0.0104384525 0.038402893 0.014306117 0.020111388 -0.018921422 -0.0056041093 0.024501566 0.042350225 0.06275859 -0.0071614906 0.037673548 -0.021918265 -0.023441186 0.05707468 -0.00674524 0.052098665 -0.0014902255 0.0022968682 0.006325351 -0.00035570227 -0.0037391644 0.03848465 0.076461844 -0.009119025 -0.004724697 0.0392839 0.0446609 -0.002920859 0.06903781 -0.012323998 0.041354597 -0.0049259798 0.029689074 -0.011193374 -0.00024292246 0.09046161 0.009181963 0.07325811 0.0044839047 0.011231069 -0.011314846 -0.004581178 -0.004425037 -0.0022770788 -0.011133905 0.01226776 -0.006930969 0.055632614 -0.008455734 -0.0010159694 0.012624789 -0.01096071 -0.010707097 -0.0015409671 -0.009134575 0.0460756 0.010098595 -0.00042776167 -0.00050983805 0.020628065 0.026414864 0.0038882308
